digraph Tree {
node [shape=box] ;
0 [label="More in Center_2 <= 0.5\ngini = 0.395\nsamples = 750\nvalue = [203, 547]"] ;
1 [label="Bot Left Corner_1 <= 0.5\ngini = 0.311\nsamples = 572\nvalue = [110, 462]"] ;
0 -> 1 [labeldistance=2.5, labelangle=45, headlabel="True"] ;
2 [label="More in Center_tie <= 0.5\ngini = 0.244\nsamples = 400\nvalue = [57, 343]"] ;
1 -> 2 ;
3 [label="Bot Left Corner_2 <= 0.5\ngini = 0.105\nsamples = 144\nvalue = [8, 136]"] ;
2 -> 3 ;
4 [label="Bot Right Corner_2 <= 0.5\ngini = 0.191\nsamples = 75\nvalue = [8, 67]"] ;
3 -> 4 ;
5 [label="Bot Center_2 <= 0.5\ngini = 0.245\nsamples = 56\nvalue = [8, 48]"] ;
4 -> 5 ;
6 [label="Bot Right Corner_0 <= 0.5\ngini = 0.265\nsamples = 51\nvalue = [8, 43]"] ;
5 -> 6 ;
7 [label="gini = 0.245\nsamples = 14\nvalue = [2, 12]"] ;
6 -> 7 ;
8 [label="gini = 0.272\nsamples = 37\nvalue = [6, 31]"] ;
6 -> 8 ;
9 [label="gini = 0.0\nsamples = 5\nvalue = [0, 5]"] ;
5 -> 9 ;
10 [label="gini = 0.0\nsamples = 19\nvalue = [0, 19]"] ;
4 -> 10 ;
11 [label="gini = 0.0\nsamples = 69\nvalue = [0, 69]"] ;
3 -> 11 ;
12 [label="Bot Right Corner_1 <= 0.5\ngini = 0.31\nsamples = 256\nvalue = [49, 207]"] ;
2 -> 12 ;
13 [label="Bot Center_2 <= 0.5\ngini = 0.245\nsamples = 175\nvalue = [25, 150]"] ;
12 -> 13 ;
14 [label="Bot Right Corner_2 <= 0.5\ngini = 0.265\nsamples = 153\nvalue = [24, 129]"] ;
13 -> 14 ;
15 [label="Bot Left Corner_0 <= 0.5\ngini = 0.309\nsamples = 89\nvalue = [17, 72]"] ;
14 -> 15 ;
16 [label="Bot Center_0 <= 0.5\ngini = 0.334\nsamples = 52\nvalue = [11, 41]"] ;
15 -> 16 ;
17 [label="gini = 0.198\nsamples = 9\nvalue = [1, 8]"] ;
16 -> 17 ;
18 [label="gini = 0.357\nsamples = 43\nvalue = [10, 33]"] ;
16 -> 18 ;
19 [label="Bot Center_1 <= 0.5\ngini = 0.272\nsamples = 37\nvalue = [6, 31]"] ;
15 -> 19 ;
20 [label="gini = 0.231\nsamples = 30\nvalue = [4, 26]"] ;
19 -> 20 ;
21 [label="gini = 0.408\nsamples = 7\nvalue = [2, 5]"] ;
19 -> 21 ;
22 [label="Bot Center_0 <= 0.5\ngini = 0.195\nsamples = 64\nvalue = [7, 57]"] ;
14 -> 22 ;
23 [label="Bot Left Corner_2 <= 0.5\ngini = 0.444\nsamples = 6\nvalue = [2, 4]"] ;
22 -> 23 ;
24 [label="gini = 0.48\nsamples = 5\nvalue = [2, 3]"] ;
23 -> 24 ;
25 [label="gini = 0.0\nsamples = 1\nvalue = [0, 1]"] ;
23 -> 25 ;
26 [label="Bot Left Corner_2 <= 0.5\ngini = 0.158\nsamples = 58\nvalue = [5, 53]"] ;
22 -> 26 ;
27 [label="gini = 0.17\nsamples = 32\nvalue = [3, 29]"] ;
26 -> 27 ;
28 [label="gini = 0.142\nsamples = 26\nvalue = [2, 24]"] ;
26 -> 28 ;
29 [label="Bot Left Corner_2 <= 0.5\ngini = 0.087\nsamples = 22\nvalue = [1, 21]"] ;
13 -> 29 ;
30 [label="Bot Right Corner_2 <= 0.5\ngini = 0.153\nsamples = 12\nvalue = [1, 11]"] ;
29 -> 30 ;
31 [label="gini = 0.198\nsamples = 9\nvalue = [1, 8]"] ;
30 -> 31 ;
32 [label="gini = 0.0\nsamples = 3\nvalue = [0, 3]"] ;
30 -> 32 ;
33 [label="gini = 0.0\nsamples = 10\nvalue = [0, 10]"] ;
29 -> 33 ;
34 [label="Bot Left Corner_2 <= 0.5\ngini = 0.417\nsamples = 81\nvalue = [24, 57]"] ;
12 -> 34 ;
35 [label="Bot Center_2 <= 0.5\ngini = 0.494\nsamples = 45\nvalue = [20, 25]"] ;
34 -> 35 ;
36 [label="Bot Center_0 <= 0.5\ngini = 0.499\nsamples = 38\nvalue = [18, 20]"] ;
35 -> 36 ;
37 [label="gini = 0.444\nsamples = 3\nvalue = [2, 1]"] ;
36 -> 37 ;
38 [label="gini = 0.496\nsamples = 35\nvalue = [16, 19]"] ;
36 -> 38 ;
39 [label="gini = 0.408\nsamples = 7\nvalue = [2, 5]"] ;
35 -> 39 ;
40 [label="Bot Center_1 <= 0.5\ngini = 0.198\nsamples = 36\nvalue = [4, 32]"] ;
34 -> 40 ;
41 [label="Bot Center_0 <= 0.5\ngini = 0.161\nsamples = 34\nvalue = [3, 31]"] ;
40 -> 41 ;
42 [label="gini = 0.0\nsamples = 5\nvalue = [0, 5]"] ;
41 -> 42 ;
43 [label="gini = 0.185\nsamples = 29\nvalue = [3, 26]"] ;
41 -> 43 ;
44 [label="gini = 0.5\nsamples = 2\nvalue = [1, 1]"] ;
40 -> 44 ;
45 [label="Bot Right Corner_2 <= 0.5\ngini = 0.426\nsamples = 172\nvalue = [53, 119]"] ;
1 -> 45 ;
46 [label="Bot Center_1 <= 0.5\ngini = 0.476\nsamples = 110\nvalue = [43, 67]"] ;
45 -> 46 ;
47 [label="More in Center_1 <= 0.5\ngini = 0.444\nsamples = 66\nvalue = [22, 44]"] ;
46 -> 47 ;
48 [label="Bot Center_2 <= 0.5\ngini = 0.448\nsamples = 65\nvalue = [22, 43]"] ;
47 -> 48 ;
49 [label="Bot Right Corner_1 <= 0.5\ngini = 0.452\nsamples = 58\nvalue = [20, 38]"] ;
48 -> 49 ;
50 [label="gini = 0.444\nsamples = 39\nvalue = [13, 26]"] ;
49 -> 50 ;
51 [label="gini = 0.465\nsamples = 19\nvalue = [7, 12]"] ;
49 -> 51 ;
52 [label="Bot Right Corner_0 <= 0.5\ngini = 0.408\nsamples = 7\nvalue = [2, 5]"] ;
48 -> 52 ;
53 [label="gini = 0.0\nsamples = 2\nvalue = [0, 2]"] ;
52 -> 53 ;
54 [label="gini = 0.48\nsamples = 5\nvalue = [2, 3]"] ;
52 -> 54 ;
55 [label="gini = 0.0\nsamples = 1\nvalue = [0, 1]"] ;
47 -> 55 ;
56 [label="More in Center_1 <= 0.5\ngini = 0.499\nsamples = 44\nvalue = [21, 23]"] ;
46 -> 56 ;
57 [label="Bot Right Corner_1 <= 0.5\ngini = 0.32\nsamples = 15\nvalue = [12, 3]"] ;
56 -> 57 ;
58 [label="gini = 0.278\nsamples = 12\nvalue = [10, 2]"] ;
57 -> 58 ;
59 [label="gini = 0.444\nsamples = 3\nvalue = [2, 1]"] ;
57 -> 59 ;
60 [label="Bot Right Corner_1 <= 0.5\ngini = 0.428\nsamples = 29\nvalue = [9, 20]"] ;
56 -> 60 ;
61 [label="gini = 0.408\nsamples = 21\nvalue = [6, 15]"] ;
60 -> 61 ;
62 [label="gini = 0.469\nsamples = 8\nvalue = [3, 5]"] ;
60 -> 62 ;
63 [label="More in Center_tie <= 0.5\ngini = 0.271\nsamples = 62\nvalue = [10, 52]"] ;
45 -> 63 ;
64 [label="gini = 0.198\nsamples = 18\nvalue = [2, 16]"] ;
63 -> 64 ;
65 [label="Bot Center_1 <= 0.5\ngini = 0.298\nsamples = 44\nvalue = [8, 36]"] ;
63 -> 65 ;
66 [label="Bot Center_2 <= 0.5\ngini = 0.278\nsamples = 42\nvalue = [7, 35]"] ;
65 -> 66 ;
67 [label="gini = 0.289\nsamples = 40\nvalue = [7, 33]"] ;
66 -> 67 ;
68 [label="gini = 0.0\nsamples = 2\nvalue = [0, 2]"] ;
66 -> 68 ;
69 [label="gini = 0.5\nsamples = 2\nvalue = [1, 1]"] ;
65 -> 69 ;
70 [label="Bot Left Corner_1 <= 0.5\ngini = 0.499\nsamples = 178\nvalue = [93, 85]"] ;
0 -> 70 [labeldistance=2.5, labelangle=-45, headlabel="False"] ;
71 [label="Bot Right Corner_1 <= 0.5\ngini = 0.489\nsamples = 106\nvalue = [45, 61]"] ;
70 -> 71 ;
72 [label="Bot Right Corner_2 <= 0.5\ngini = 0.451\nsamples = 64\nvalue = [22, 42]"] ;
71 -> 72 ;
73 [label="Bot Left Corner_0 <= 0.5\ngini = 0.472\nsamples = 42\nvalue = [16, 26]"] ;
72 -> 73 ;
74 [label="Bot Center_1 <= 0.5\ngini = 0.498\nsamples = 17\nvalue = [8, 9]"] ;
73 -> 74 ;
75 [label="gini = 0.498\nsamples = 15\nvalue = [8, 7]"] ;
74 -> 75 ;
76 [label="gini = 0.0\nsamples = 2\nvalue = [0, 2]"] ;
74 -> 76 ;
77 [label="Bot Center_1 <= 0.5\ngini = 0.435\nsamples = 25\nvalue = [8, 17]"] ;
73 -> 77 ;
78 [label="gini = 0.397\nsamples = 22\nvalue = [6, 16]"] ;
77 -> 78 ;
79 [label="gini = 0.444\nsamples = 3\nvalue = [2, 1]"] ;
77 -> 79 ;
80 [label="Bot Left Corner_2 <= 0.5\ngini = 0.397\nsamples = 22\nvalue = [6, 16]"] ;
72 -> 80 ;
81 [label="gini = 0.444\nsamples = 18\nvalue = [6, 12]"] ;
80 -> 81 ;
82 [label="gini = 0.0\nsamples = 4\nvalue = [0, 4]"] ;
80 -> 82 ;
83 [label="Bot Left Corner_2 <= 0.5\ngini = 0.495\nsamples = 42\nvalue = [23, 19]"] ;
71 -> 83 ;
84 [label="Bot Center_2 <= 0.5\ngini = 0.464\nsamples = 30\nvalue = [19, 11]"] ;
83 -> 84 ;
85 [label="gini = 0.444\nsamples = 3\nvalue = [1, 2]"] ;
84 -> 85 ;
86 [label="gini = 0.444\nsamples = 27\nvalue = [18, 9]"] ;
84 -> 86 ;
87 [label="Bot Center_1 <= 0.5\ngini = 0.444\nsamples = 12\nvalue = [4, 8]"] ;
83 -> 87 ;
88 [label="gini = 0.463\nsamples = 11\nvalue = [4, 7]"] ;
87 -> 88 ;
89 [label="gini = 0.0\nsamples = 1\nvalue = [0, 1]"] ;
87 -> 89 ;
90 [label="Bot Right Corner_1 <= 0.5\ngini = 0.444\nsamples = 72\nvalue = [48, 24]"] ;
70 -> 90 ;
91 [label="Bot Right Corner_2 <= 0.5\ngini = 0.484\nsamples = 51\nvalue = [30, 21]"] ;
90 -> 91 ;
92 [label="Bot Center_2 <= 0.5\ngini = 0.475\nsamples = 36\nvalue = [22, 14]"] ;
91 -> 92 ;
93 [label="gini = 0.5\nsamples = 2\nvalue = [1, 1]"] ;
92 -> 93 ;
94 [label="gini = 0.472\nsamples = 34\nvalue = [21, 13]"] ;
92 -> 94 ;
95 [label="Bot Center_2 <= 0.5\ngini = 0.498\nsamples = 15\nvalue = [8, 7]"] ;
91 -> 95 ;
96 [label="gini = 0.0\nsamples = 1\nvalue = [1, 0]"] ;
95 -> 96 ;
97 [label="gini = 0.5\nsamples = 14\nvalue = [7, 7]"] ;
95 -> 97 ;
98 [label="Bot Center_1 <= 0.5\ngini = 0.245\nsamples = 21\nvalue = [18, 3]"] ;
90 -> 98 ;
99 [label="gini = 0.255\nsamples = 20\nvalue = [17, 3]"] ;
98 -> 99 ;
100 [label="gini = 0.0\nsamples = 1\nvalue = [1, 0]"] ;
98 -> 100 ;
}